{"type":"NeuralNetwork","sizes":[9,18,1],"layers":[{"weights":[],"biases":[]},{"weights":[[-0.9543496370315552,-0.21520401537418365,-2.9809768199920654,-1.5838475227355957,0.15928050875663757,-1.616197109222412,5.165079116821289,3.143648862838745,-0.17732855677604675],[-4.670691013336182,2.653919219970703,0.8684700131416321,-3.0025157928466797,-0.7398174405097961,0.8439788222312927,-0.8056874871253967,1.792708158493042,-0.3154309391975403],[3.940842628479004,-2.1542019844055176,-3.792893886566162,-4.0336761474609375,-2.3761510848999023,4.129612922668457,-1.9099407196044922,-2.8691515922546387,-1.0417325496673584],[3.8475637435913086,-0.9482922554016113,2.3889505863189697,3.4306728839874268,1.7295738458633423,-3.8738348484039307,-5.8733015060424805,-2.506861925125122,-2.295572280883789],[-0.012295903638005257,3.294610023498535,2.6947021484375,3.7749412059783936,3.225801467895508,-1.0525721311569214,-2.5374841690063477,4.358047962188721,2.7565364837646484],[-1.4500590562820435,4.903833389282227,4.888707160949707,4.624203205108643,3.608916759490967,-4.221008777618408,0.04549534618854523,-3.417990207672119,-2.189105749130249],[3.184476852416992,-0.6660669445991516,4.584578990936279,-0.4535670280456543,-6.200161933898926,-5.03727912902832,-3.518566131591797,-0.32244381308555603,-4.81279993057251],[1.790268898010254,-1.1519798040390015,0.9642667770385742,2.2944183349609375,-1.3909822702407837,0.009209642186760902,-1.4016797542572021,3.4593026638031006,-3.2992136478424072],[-2.302325487136841,0.11534038186073303,0.4750259518623352,-0.778376579284668,-1.0281145572662354,0.1789642721414566,0.9360857605934143,1.7493983507156372,0.22755476832389832],[3.8647167682647705,-0.7297959923744202,2.7194013595581055,1.169033408164978,3.235599994659424,3.310908555984497,-4.96350622177124,5.082711219787598,-2.355048418045044],[-5.042149543762207,-2.9416403770446777,-1.2231415510177612,2.433629035949707,-1.4211527109146118,-4.8093061447143555,4.276008129119873,-0.1829792857170105,-2.6035995483398438],[2.4742519855499268,0.836764931678772,-0.26479572057724,-2.5407636165618896,0.6008335947990417,0.3916994333267212,-0.5741713643074036,0.33869045972824097,-1.6510602235794067],[3.63870906829834,-2.2310714721679688,0.462502121925354,0.28476232290267944,1.8909658193588257,-1.539631724357605,0.2808181345462799,0.5276741981506348,-6.591790199279785],[1.1216320991516113,-1.5702117681503296,-3.64385724067688,3.8773722648620605,-0.3699222803115845,4.696981430053711,-2.857491970062256,-1.2324398756027222,0.3140009343624115],[-2.9910519123077393,-2.510467290878296,-2.68163800239563,-4.668005466461182,0.22246035933494568,3.7957186698913574,-2.889782428741455,7.123654365539551,-3.1605031490325928],[0.013904073275625706,-1.8310837745666504,1.7560275793075562,-4.173956871032715,1.9348139762878418,-0.4774324893951416,-3.167757034301758,1.1963557004928589,2.5947561264038086],[-0.832473874092102,0.2961970567703247,-1.0182362794876099,2.0672388076782227,2.8812146186828613,-0.6952821612358093,2.9963345527648926,-1.7249027490615845,-4.172539234161377],[-3.9242844581604004,-3.4010233879089355,0.06242461875081062,3.6234078407287598,1.3645440340042114,-0.00747488159686327,2.142286777496338,6.475643634796143,1.0892298221588135]],"biases":[1.4336386919021606,-0.7513461709022522,-0.021686719730496407,0.21731707453727722,0.6186180114746094,-0.6415889263153076,2.6869962215423584,-0.1947694569826126,-0.3631156384944916,-1.2567206621170044,-4.721334457397461,-0.6829310059547424,-1.7052031755447388,-2.086656093597412,1.374301791191101,-1.3029619455337524,0.36382126808166504,-3.4085381031036377]},{"weights":[[-5.940317153930664,6.4297308921813965,-8.083832740783691,7.338934898376465,-8.058308601379395,-13.918757438659668,11.562439918518066,-6.305266380310059,2.6507341861724854,-9.882701873779297,-10.367934226989746,3.1163482666015625,8.503037452697754,7.329187393188477,-11.176040649414062,4.573718547821045,4.602595806121826,9.9443941116333]],"biases":[-0.743124783039093]}],"inputLookup":null,"inputLookupLength":0,"outputLookup":null,"outputLookupLength":0,"options":{"inputSize":9,"outputSize":9,"binaryThresh":0.5,"hiddenLayers":[18],"iterations":50,"activation":"sigmoid","learningRate":0.025},"trainOpts":{"activation":"sigmoid","iterations":50,"errorThresh":0.005,"log":false,"logPeriod":10,"leakyReluAlpha":0.01,"learningRate":0.025,"momentum":0.1,"callbackPeriod":10,"timeout":"Infinity","beta1":0.9,"beta2":0.999,"epsilon":1e-8}}