{"type":"NeuralNetwork","sizes":[9,9,9,1],"layers":[{"weights":[],"biases":[]},{"weights":[[-0.10129925608634949,0.12291660159826279,-0.15345299243927002,0.1709277182817459,0.20159530639648438,-0.19506563246250153,0.22313302755355835,0.04306681454181671,0.16398455202579498],[-0.05609171465039253,-0.13421443104743958,0.18030576407909393,-0.08443021774291992,-0.03444705158472061,0.1758335828781128,-0.05187536031007767,-0.19157451391220093,0.1952931135892868],[0.14997979998588562,-0.17268377542495728,-0.06514091044664383,-0.0453195795416832,0.14588379859924316,0.010851088911294937,0.13451305031776428,-0.025846784934401512,-0.00834052823483944],[-0.08250521123409271,0.003669100347906351,-0.17730490863323212,-0.08309095352888107,-0.0624300092458725,0.046761076897382736,-0.07714302092790604,0.01308953482657671,-0.15831486880779266],[0.096277616918087,-0.04840804263949394,-0.05744415894150734,0.15159015357494354,-0.06518962979316711,-0.15933312475681305,0.014197112992405891,-0.07571062445640564,0.15654721856117249],[-0.00023735528520774096,-0.04688908904790878,0.11315591633319855,-0.08313268423080444,-0.10666444897651672,0.06802315264940262,-0.0373605377972126,0.01036229357123375,-0.05715158209204674],[-0.14695562422275543,0.10409574955701828,0.18454033136367798,-0.11715671420097351,-0.13146913051605225,0.016555340960621834,-0.0329110361635685,0.1792300045490265,0.08076544851064682],[-0.12202233821153641,0.053357601165771484,0.06324468553066254,0.15111292898654938,0.08911255747079849,0.1906174123287201,0.0973881408572197,-0.15446166694164276,0.07565556466579437],[-0.03936836123466492,0.055010583251714706,0.1550823450088501,0.12565390765666962,-0.006475619971752167,0.08016738295555115,-0.09183375537395477,-0.028448177501559258,0.1945439875125885]],"biases":[0.028223877772688866,-0.10665694624185562,0.014430828392505646,0.028812237083911896,0.17410095036029816,-0.022267984226346016,-0.1263362616300583,0.0017891820752993226,0.12622638046741486]},{"weights":[[0.35313859581947327,0.007410192862153053,0.3617262840270996,0.18927322328090668,0.06700464338064194,0.2351628839969635,-0.03902145102620125,0.1810031533241272,0.2739149332046509],[0.2990341782569885,0.3249894380569458,0.04999203607439995,0.25422772765159607,0.26059025526046753,0.35256874561309814,0.06085734814405441,0.09960727393627167,0.3915843963623047],[0.2853851616382599,0.0913156121969223,0.3688192367553711,0.04503961279988289,0.27947571873664856,-0.019360018894076347,0.23700611293315887,0.0391162633895874,0.07064607739448547],[0.2331693172454834,0.06623419374227524,-0.004713752772659063,0.08959705382585526,0.05487554520368576,-0.07124683260917664,0.29471349716186523,0.3145447075366974,0.06631764769554138],[-0.03633435443043709,0.032578419893980026,0.2715933918952942,0.14803069829940796,-0.04125361889600754,0.15209859609603882,0.27594509720802307,0.1911090612411499,0.15571801364421844],[0.07584342360496521,0.10927262157201767,0.12068195641040802,0.3527836799621582,0.1510569006204605,0.19746379554271698,0.33279722929000854,0.17997579276561737,0.33376163244247437],[0.1576162874698639,-0.05664442479610443,0.29888537526130676,-0.033060189336538315,0.17886501550674438,0.08832017332315445,0.17909084260463715,0.16891244053840637,0.2854708731174469],[0.07959821820259094,0.001798288314603269,0.06305050849914551,0.22894245386123657,0.3507143259048462,-0.0025356183759868145,0.11051341891288757,0.21885429322719574,0.26504379510879517],[0.20768985152244568,0.09780074656009674,0.08567516505718231,0.22192244231700897,0.23201531171798706,0.03641164302825928,0.013981297612190247,0.05749062821269035,0.2703695297241211]],"biases":[0.25432518124580383,0.2168480008840561,0.19983211159706116,0.04608306661248207,0.2920520305633545,0.4164004623889923,0.3069614768028259,0.31702619791030884,0.4388786256313324]},{"weights":[[-1.4708075523376465,-1.5838394165039062,-1.3608770370483398,-1.0793184041976929,-1.1908506155014038,-1.597550868988037,-1.2323038578033447,-1.3169232606887817,-1.4757297039031982]],"biases":[-2.2467281818389893]}],"inputLookup":null,"inputLookupLength":0,"outputLookup":null,"outputLookupLength":0,"options":{"inputSize":0,"outputSize":9,"binaryThresh":0.5,"hiddenLayers":[9,9],"iterations":100,"activation":"sigmoid"},"trainOpts":{"activation":"sigmoid","iterations":100,"errorThresh":0.005,"log":false,"logPeriod":10,"leakyReluAlpha":0.01,"learningRate":0.3,"momentum":0.1,"callbackPeriod":10,"timeout":"Infinity","beta1":0.9,"beta2":0.999,"epsilon":1e-8}}